digraph Tree {
node [shape=box] ;
0 [label="X[6] <= -0.706\ngini = 0.659\nsamples = 142\nvalue = [44, 57, 41]"] ;
1 [label="X[9] <= -0.61\ngini = 0.133\nsamples = 42\nvalue = [0, 3, 39]"] ;
0 -> 1 [labeldistance=2.5, labelangle=45, headlabel="True"] ;
2 [label="gini = 0.0\nsamples = 3\nvalue = [0, 3, 0]"] ;
1 -> 2 ;
3 [label="gini = 0.0\nsamples = 39\nvalue = [0, 0, 39]"] ;
1 -> 3 ;
4 [label="X[12] <= 0.005\ngini = 0.514\nsamples = 100\nvalue = [44, 54, 2]"] ;
0 -> 4 [labeldistance=2.5, labelangle=-45, headlabel="False"] ;
5 [label="X[11] <= -1.62\ngini = 0.106\nsamples = 54\nvalue = [1, 51, 2]"] ;
4 -> 5 ;
6 [label="gini = 0.0\nsamples = 2\nvalue = [0, 0, 2]"] ;
5 -> 6 ;
7 [label="X[0] <= 0.246\ngini = 0.038\nsamples = 52\nvalue = [1, 51, 0]"] ;
5 -> 7 ;
8 [label="gini = 0.0\nsamples = 49\nvalue = [0, 49, 0]"] ;
7 -> 8 ;
9 [label="X[9] <= -0.434\ngini = 0.444\nsamples = 3\nvalue = [1, 2, 0]"] ;
7 -> 9 ;
10 [label="gini = 0.0\nsamples = 2\nvalue = [0, 2, 0]"] ;
9 -> 10 ;
11 [label="gini = 0.0\nsamples = 1\nvalue = [1, 0, 0]"] ;
9 -> 11 ;
12 [label="X[0] <= -0.381\ngini = 0.122\nsamples = 46\nvalue = [43, 3, 0]"] ;
4 -> 12 ;
13 [label="gini = 0.0\nsamples = 3\nvalue = [0, 3, 0]"] ;
12 -> 13 ;
14 [label="gini = 0.0\nsamples = 43\nvalue = [43, 0, 0]"] ;
12 -> 14 ;
}